{"model":{"layer_stack.0.weight":[[0.26577404141426086,0.5943366289138794,-0.8090505003929138,-0.5000000596046448],[0.09540478885173798,0.5994524359703064,-0.38131219148635864,-0.7932431101799011],[-0.44753456115722656,-0.46937835216522217,0.8149355053901672,0.8470730185508728],[-0.49877527356147766,-0.3086932301521301,0.6551978588104248,0.9840340614318848],[-0.19912804663181305,0.6403722763061523,-0.2296791970729828,-0.38702550530433655],[-0.18091651797294617,-0.4705301523208618,0.5558058023452759,1.000541090965271],[0.0665137991309166,-0.7808658480644226,0.6421916484832764,0.11326950043439865],[-0.4730645716190338,-0.03782607242465019,0.8478827476501465,0.1346217542886734],[0.05964333191514015,0.6623629331588745,-0.07998348027467728,-0.1204153448343277],[-0.11801567673683167,-0.322623610496521,0.3866003155708313,0.15216241776943207]],"layer_stack.0.bias":[1.292230486869812,0.7085772752761841,-1.16560959815979,-0.5531455874443054,-0.2377581000328064,0.03977503627538681,0.40544360876083374,0.35000911355018616,0.6717005372047424,0.04337242990732193],"layer_stack.2.weight":[[0.21607472002506256,0.45121338963508606,-0.432049423456192,-0.7777273654937744,-0.0843660980463028,-0.5754784941673279,-0.47866174578666687,-0.8937801718711853,-0.013982953503727913,-0.27435559034347534],[0.18302765488624573,0.34312453866004944,-0.5592820644378662,-0.18994148075580597,-0.38352519273757935,0.31191113591194153,1.0625284910202026,0.6073516607284546,-0.08269139379262924,-0.16783612966537476],[-1.2118186950683594,-0.8322361707687378,1.1023659706115723,0.5517123937606812,-0.2966240346431732,0.5068785548210144,0.376841276884079,0.5606073141098022,-0.08887969702482224,0.2066391259431839]],"layer_stack.2.bias":[0.12680856883525848,0.34731486439704895,0.04949911683797836]},"label":"Species"}